-0.096238256
-0.016584644
-0.04350268
0.121345185
-0.011726595
-0.29233044
-0.12047271
0.07685494
-0.020064004
0.1221416
0.06324466
0.19002281
-0.110169
0.18070675
0.0037792008
-0.28674966
-0.11036454
0.089226775
0.23643753
-0.069404684
0.04102309
-0.0034987477
0.08165794
0.14007045
0.019486701
0.17506167
-0.097275205
0.005765343
-0.031142212
0.13209498
0.2800238
-0.28237307
0.09387603
0.085475795
0.18934542
0.07148882
0.036846533
0.14576323
-0.10817927
0.011809321
-0.023585461
-0.1849414
0.2817905
0.15488248
-0.25350356
0.055571236
0.03188517
-0.10223367
-0.14448431
-0.06770422
-0.13562092
-0.15905792
-0.13989602
-0.13308683
0.18340705
0.096179746
0.21299632
-0.073663026
0.15153635
-0.014082452
0.2349092
-0.34746295
-0.07427175
0.028224755
-0.12992825
-0.030962043
0.13686723
-0.12370249
0.28795308
0.20520134
-0.07735894
0.17028317
0.01119151
0.10980275
0.033720832
0.12702516
-0.09277353
-0.017550781
0.19075781
0.12022061
0.22574407
-0.102098644
-0.027252272
-0.16573006
-0.107384905
0.1448906
-0.04625324
0.123953395
0.32620785
0.11633564
-0.13286844
0.15673718
-0.005358191
0.100813776
0.13905051
-0.116975315
0.08706238
0.03673154
-0.002755315
-0.10380876
